4,4,4,10,10,1
0.000000000000000000e+00,0.000000000000000000e+00,0.000000000000000000e+00,0.000000000000000000e+00,0.000000000000000000e+00,0.000000000000000000e+00,0.000000000000000000e+00,0.000000000000000000e+00,0.000000000000000000e+00,0.000000000000000000e+00,0.000000000000000000e+00,0.000000000000000000e+00,0.000000000000000000e+00,0.000000000000000000e+00,0.000000000000000000e+00,0.000000000000000000e+00,1.368848992071994397e+00,-1.616773903994407346e-01,4.517784222772866509e-01,9.616962622818637785e-01,1.787061537710859405e+00,-2.060538178064119652e+00,5.587275542252216898e-01,-9.637018720955133899e-01,-1.394916095378216703e+00,-1.369485798419095290e-01,3.117842800071330966e-01,9.971273728950957871e-01,8.664276960794599081e-01,1.403183603260766982e-03,3.219793871029096727e-02,1.995997925550731633e+00,1.785995216554532306e+00,9.415941910840528450e-01,1.518023459307557887e+00,-5.708105443328228557e-01,-2.699305387915337473e+00,1.178808591068458922e+00,-2.948903398271396359e-01,-9.740614861697943772e-01,1.979651722767905575e+00,-8.811054072222472833e-01,-1.941985935464427687e-02,2.881409847067755714e-01,1.046134963476769986e-01,1.673026142344111733e+00,2.539801742468833501e-01,1.236970439428970170e-01,-7.064438131551989963e-01,-1.211336325859273089e+00,1.915337876582972054e-01,-4.875050270319138124e-02,9.722035760989201636e-01,2.038885167418625077e-01,-8.840783001440289945e-01,-4.364804129109696174e-01,-3.146919930442045737e-02,5.409413687808243276e-01,-3.137017192418111167e-01,-5.027775519805119941e-01,1.592561760886806732e-01,-2.933902337248393000e+00,-1.632849924165746987e-03,-2.446131866584450698e+00,-1.894302242784911217e+00,-5.394303986584404048e-02
0.000000000000000000e+00,0.000000000000000000e+00,0.000000000000000000e+00,0.000000000000000000e+00,-5.572355256510500565e-01,-1.603885373716100737e+00,-1.363555799995661566e+00,2.169910187610965213e+00,-6.837134491975153106e-01,-1.460936105380035155e+00,-1.174952668190339278e+00,9.990056936153667300e-01,-1.728648329942611861e+00,4.065808026951823750e-01,-2.237178675316730647e+00
