4,4,4,10,10,1
0.000000000000000000e+00,0.000000000000000000e+00,0.000000000000000000e+00,0.000000000000000000e+00,0.000000000000000000e+00,0.000000000000000000e+00,0.000000000000000000e+00,0.000000000000000000e+00,0.000000000000000000e+00,0.000000000000000000e+00,0.000000000000000000e+00,0.000000000000000000e+00,0.000000000000000000e+00,0.000000000000000000e+00,0.000000000000000000e+00,0.000000000000000000e+00,1.212416579582482473e-01,-8.754276828471705407e-01,4.312977204533102182e-01,1.188354195594438334e+00,1.115975338728535826e+00,-2.439814154349195796e+00,4.167862464447246174e-01,-7.576094461151350323e-01,-2.523733621725547049e+00,-3.619923167938153274e-01,-1.197657109534382563e-01,8.608804370401139661e-01,1.011855191488031380e+00,-1.181620534936704159e+00,-1.126051163841958580e+00,2.448380257224387346e+00,1.869512201645333604e+00,7.552178204872651568e-01,2.529492847647233145e+00,3.725463730110025184e-01,-2.037875050993494863e+00,1.213186564324366667e+00,-3.358312856758772225e-01,-5.619490742311281650e-01,1.454587643191113333e+00,-1.529280636527766912e+00,-1.484062267580502914e-01,3.428734443117382735e-01,1.514359598810445240e-01,6.928688390632529170e-01,-6.610034946742516793e-01,4.616718605820530619e-01,-5.540618217384459809e-01,-5.406630100946604456e-01,4.906294061988358823e-01,-2.226182218262472701e-01,6.876382558982137017e-01,1.182960633401148182e-01,-2.232950550377797772e+00,2.531436811657032382e-01,-3.732097486164231981e-01,1.986648867212853720e+00,-6.745667878679223461e-03,-1.600002717474625857e+00,4.976276893733466156e-01,-4.339220437859037993e+00,1.723901049471603802e-02,-6.403134375992944882e+00,-2.680766325199474220e+00,-6.342279726038789756e-01
0.000000000000000000e+00,0.000000000000000000e+00,0.000000000000000000e+00,0.000000000000000000e+00,4.093575012467673968e-01,-1.658152777620832019e+00,-1.162379997425711853e+00,2.881743342916291528e+00,-3.983999382178357584e-01,-2.972022867071708596e+00,-1.354044254234503919e+00,-5.686769677573455528e-01,-4.414141938246951113e+00,7.704731291831060647e-01,-1.043681871418818741e+00
