4,4,4,10,10,1
0.000000000000000000e+00,0.000000000000000000e+00,0.000000000000000000e+00,0.000000000000000000e+00,0.000000000000000000e+00,0.000000000000000000e+00,0.000000000000000000e+00,0.000000000000000000e+00,0.000000000000000000e+00,0.000000000000000000e+00,0.000000000000000000e+00,0.000000000000000000e+00,0.000000000000000000e+00,0.000000000000000000e+00,0.000000000000000000e+00,0.000000000000000000e+00,1.450266031249102916e+00,1.228770842126754581e-01,5.680186691590276560e-01,1.554392732307734670e+00,1.661543533749734403e+00,-2.187079208936990149e+00,4.783526889849351038e-01,-8.017862937630907405e-01,-1.362760473329894584e+00,-1.094128923760365468e-01,3.418415293912263064e-01,1.483624435504991457e+00,9.426594675735758821e-01,3.501472459711811314e-01,4.277072389293186672e-01,2.274223515952621621e+00,1.800867492610142007e+00,8.262651129329652289e-01,1.422249972510401861e+00,-5.034118314886922851e-01,-2.699690901477894034e+00,2.735691202042124237e-01,3.042264509332260891e-01,-8.284927116945712822e-01,2.058931698650939612e+00,-4.347941488646834274e-01,1.452524466904469083e-02,5.406256295019661040e-02,-4.982300629578652329e-02,1.568808119789748767e+00,2.818784654595185568e-01,2.463288533383076462e-01,-1.053771924743169830e+00,-1.990208398868376971e+00,-2.322477209673663376e-02,-4.866905526725372466e-01,9.575167566242895889e-01,2.986925981586999873e-02,4.996559244225484697e-02,-4.259155128303830917e-01,-1.184986988583495819e-02,1.672177336084977942e-02,-5.860339073855260622e-02,-4.568024993635930175e-02,3.349379646395746896e-02,-2.897199804290291336e+00,4.473782261094808033e-03,-2.096976679369312091e+00,-2.049452644623332542e+00,8.508124766079925780e-03
0.000000000000000000e+00,0.000000000000000000e+00,0.000000000000000000e+00,0.000000000000000000e+00,-8.757962349586705386e-01,-1.395239778617659798e+00,-1.477096809913351239e+00,2.229720543683538558e+00,-9.566663043839407354e-01,-2.056930884034977147e+00,-1.262576333187433120e+00,1.041377746206485266e+00,-9.330105306523878150e-01,2.144728123056220404e-01,-1.833519488463913216e+00
