4,4,4,10,10,1
0.000000000000000000e+00,0.000000000000000000e+00,0.000000000000000000e+00,0.000000000000000000e+00,0.000000000000000000e+00,0.000000000000000000e+00,0.000000000000000000e+00,0.000000000000000000e+00,0.000000000000000000e+00,0.000000000000000000e+00,0.000000000000000000e+00,0.000000000000000000e+00,0.000000000000000000e+00,0.000000000000000000e+00,0.000000000000000000e+00,0.000000000000000000e+00,5.714023428514249797e-02,-7.141564556016480880e-01,2.652763400668856630e-01,7.052406670738892158e-01,7.464773100646302506e-01,-1.934496766038208415e+00,2.818709939671081299e-01,-8.001559944147483838e-01,-1.703555590187868285e+00,-2.206809833740529525e-01,-3.503843334673426013e-02,7.067633892566103082e-01,6.327412228637362412e-01,-7.232744529641931264e-01,-7.615488644121768402e-01,1.936982593442799327e+00,1.138920994213136861e+00,7.997492487347482859e-01,1.719922762935166105e+00,1.613009635855301993e-01,-1.567008526461624918e+00,9.789939362910655696e-01,-2.069490131076383022e-01,-5.079741165886395571e-01,9.580928113822932968e-01,-1.044559906839072294e+00,-8.852067189100830402e-02,2.358894816329951960e-01,2.800924931875098944e-01,7.142667823482439227e-01,-4.243092188025924250e-01,4.580687988743783468e-01,-3.471073020057135472e-01,-5.659581926078998126e-01,3.994149012246407393e-01,-1.931042451886441358e-01,4.461072800050572829e-01,1.155283379783471065e-01,-1.767514678421868490e+00,2.354636827861386061e-01,-2.199397283226812994e-01,1.266848158280744707e+00,-3.214797137251521747e-02,-1.178698258721200043e+00,4.249751775581860902e-01,-3.061518084886015956e+00,-4.757077400657362502e-03,-4.131207813989163036e+00,-1.954085154591071127e+00,-5.231083624215311367e-01
0.000000000000000000e+00,0.000000000000000000e+00,0.000000000000000000e+00,0.000000000000000000e+00,3.237157397805880410e-01,-1.689591134237915737e+00,-1.162816341732109127e+00,2.690271714488287280e+00,-7.006135136999107615e-01,-1.914117980021382115e+00,-1.349266720883329329e+00,1.599602621763715482e-02,-3.745678915207831139e+00,5.872797044753695905e-01,-1.464906363523177379e+00
