4,4,4,10,10,1
0.000000000000000000e+00,0.000000000000000000e+00,0.000000000000000000e+00,0.000000000000000000e+00,0.000000000000000000e+00,0.000000000000000000e+00,0.000000000000000000e+00,0.000000000000000000e+00,0.000000000000000000e+00,0.000000000000000000e+00,0.000000000000000000e+00,0.000000000000000000e+00,0.000000000000000000e+00,0.000000000000000000e+00,0.000000000000000000e+00,0.000000000000000000e+00,1.120171262770855547e+00,-5.546025962469047776e-01,6.265253123057588081e-01,1.078080407977374477e+00,1.271142456032742674e+00,-2.360739343812697566e+00,7.908984329568551352e-01,-7.892392958043288331e-01,-2.114322391379955146e+00,-4.050486018219050521e-01,2.296544117579594479e-01,8.202480426715682560e-01,9.427188399894556037e-01,-7.644445728172122312e-01,-9.376871679625162770e-01,2.315259807858396801e+00,1.646284304120962494e+00,8.085720200791737255e-01,2.177388573538921790e+00,-3.289064148419093558e-01,-2.953934238972250714e+00,1.305948334373222997e+00,-1.873679004950570270e-01,-8.963731098563028077e-01,1.843303442880320331e+00,-1.350365874789860143e+00,-1.998203055349562565e-02,2.577628741610444307e-01,1.693258702797160731e-01,1.462227082367059339e+00,2.468822039655295744e-02,2.626367377456899632e-01,-4.252159540423267048e-01,-7.865968567433627712e-01,2.823799690087195335e-01,-9.622712137559337464e-02,1.077942614930338827e+00,8.950035313548239391e-02,-1.528053694184898559e+00,-4.012525583792794781e-01,-1.136845924289053567e-01,9.320859330303916668e-01,-6.863161921127526599e-02,-7.808079220181708413e-01,2.888345440130447028e-01,-3.264300980448757272e+00,-1.630672750192906605e-03,-4.201098284817557982e+00,-2.182108684440896340e+00,-1.561188442523159525e-01
0.000000000000000000e+00,0.000000000000000000e+00,0.000000000000000000e+00,0.000000000000000000e+00,-5.114743383867517146e-01,-1.726372820434929567e+00,-1.379774505365016779e+00,2.132825330092579907e+00,-8.714824168905517254e-01,-2.349168947032361565e+00,-1.249003289173558739e+00,1.530831791137706177e-01,-2.948347506846897392e+00,3.638279520285420676e-01,-1.934830719103453278e+00
