4,4,4,10,10,1
0.000000000000000000e+00,0.000000000000000000e+00,0.000000000000000000e+00,0.000000000000000000e+00,0.000000000000000000e+00,0.000000000000000000e+00,0.000000000000000000e+00,0.000000000000000000e+00,0.000000000000000000e+00,0.000000000000000000e+00,0.000000000000000000e+00,0.000000000000000000e+00,0.000000000000000000e+00,0.000000000000000000e+00,0.000000000000000000e+00,0.000000000000000000e+00,5.781328289497236761e-02,-7.151857842376747598e-01,2.664036252107845892e-01,7.073638975516816085e-01,7.489646967194754090e-01,-1.935890875036122560e+00,2.829957016380739154e-01,-7.997504533329354848e-01,-1.707745872236941409e+00,-2.199744607613124958e-01,-3.551800669856915171e-02,7.078664835183161586e-01,6.352122673486462201e-01,-7.254224271204100516e-01,-7.642690198332277030e-01,1.938387222731750459e+00,1.143476823112124396e+00,7.994260902966795479e-01,1.724045494882619378e+00,1.600490327286279713e-01,-1.572798701099418661e+00,9.798703960445093175e-01,-2.077913406918254768e-01,-5.078127486888982522e-01,9.608411333145255862e-01,-1.047844394111519861e+00,-8.888301191389788580e-02,2.358293267295503981e-01,2.794273990860347001e-01,7.161714166800277059e-01,-4.255743265493802108e-01,4.572338082532335646e-01,-3.485510534693658236e-01,-5.659241736270295142e-01,3.991383086473143105e-01,-1.925082339266035725e-01,4.478981838613750321e-01,1.150265254242169022e-01,-1.770356772655932831e+00,2.357480987007916640e-01,-2.195007953358256436e-01,1.269801660245697406e+00,-3.183282530635270918e-02,-1.180863065771267317e+00,4.245299909286773810e-01,-3.067218147763937530e+00,-4.625368930761092692e-03,-4.144689211267729156e+00,-1.958089494687241139e+00,-5.208600702278685102e-01
0.000000000000000000e+00,0.000000000000000000e+00,0.000000000000000000e+00,0.000000000000000000e+00,3.230055420269098421e-01,-1.688935165663841609e+00,-1.162819219286506112e+00,2.690845509199139673e+00,-7.009050506731632213e-01,-1.922898564344832195e+00,-1.349269158917210776e+00,1.292951207570859802e-02,-3.749904599127825922e+00,5.863529191852639988e-01,-1.463490661972921325e+00
